{"linear.weight": [[-0.11731427162885666, -0.04574781656265259, 0.09176258742809296, 0.18115483224391937, -0.01240760087966919, 0.1413234919309616, -0.13872304558753967, -0.13599316775798798, -0.1837681382894516, -0.13429106771945953, -0.1682460457086563, -0.1776592880487442, -0.1395132839679718, -0.06397062540054321, 0.14341817796230316, -0.1340784877538681, -0.15651871263980865, 0.07325296103954315, 0.10443629324436188, -0.05047991871833801, -0.0787181481719017, 0.17483006417751312, -0.18751907348632812, 0.1016915887594223, 0.03499633073806763, -0.05136995017528534, -0.17029887437820435, -0.08187098056077957], [-0.018315941095352173, -0.13906601071357727, 0.1482519954442978, -0.0860719233751297, -0.046049654483795166, 0.10039801895618439, -0.15395411849021912, -0.10396966338157654, 0.10087208449840546, 0.088447704911232, -0.04470919072628021, -0.0967731773853302, 0.1783716231584549, -0.02270093560218811, 0.008051574230194092, 0.1501481980085373, 0.12217287719249725, 0.0664137750864029, -0.09658900648355484, -0.10423973202705383, -0.0988752618432045, -0.18752284348011017, 0.11816738545894623, 4.2945146560668945e-05, 0.11271174252033234, -0.10068278759717941, -0.01738765835762024, 0.008112743496894836], [-0.02567906677722931, -0.08579356223344803, -0.07419180124998093, -0.14680778980255127, 0.11883373558521271, -0.09598700702190399, -0.13037939369678497, 0.11661432683467865, 0.09087477624416351, 0.14536826312541962, 0.1686069220304489, -0.05230353772640228, -0.1305600106716156, -0.17749083042144775, 0.03232721984386444, 0.03384186327457428, -0.1664549857378006, -0.02590438723564148, 0.10845978558063507, -0.08421197533607483, -0.1582362800836563, 0.10011778771877289, 0.061882421374320984, 0.044037073850631714, 0.17125128209590912, -0.07722320407629013, -0.10522589832544327, -0.03178589046001434], [0.07145906984806061, -0.0348626971244812, -0.008880123496055603, 0.0074793994426727295, -0.06616336107254028, 0.1561688631772995, -0.14107227325439453, -0.10507727414369583, 0.16363666951656342, 0.1828017383813858, -0.18350723385810852, 0.11872150003910065, 0.14988966286182404, 0.025123178958892822, 0.010030657052993774, -0.012485325336456299, -0.03237873315811157, -0.17972694337368011, 0.18286330997943878, -0.15148261189460754, -0.1577715128660202, 0.15723906457424164, 0.010521471500396729, 0.09335456788539886, -0.0683673620223999, -0.13389936089515686, -0.08778106421232224, -0.17404067516326904], [0.1420546919107437, 0.024732977151870728, -0.07745394110679626, -0.10663018375635147, -0.06905648857355118, -0.18872448801994324, 0.17885519564151764, 0.11016513407230377, -0.10442020744085312, 0.17983298003673553, 0.14744068682193756, 0.05920065939426422, -0.0684480369091034, 0.06983102858066559, -0.10984943062067032, -0.10179855674505234, 0.06246216595172882, -0.07003870606422424, -0.0940975695848465, 0.05838105082511902, 0.14746014773845673, -0.021895170211791992, 0.13350386917591095, 0.11761237680912018, 0.11742739379405975, -0.09232212603092194, -0.17267806828022003, -0.07130327075719833], [0.00817960500717163, -0.03445656597614288, -0.059412285685539246, 0.08183266222476959, 0.060814931988716125, 0.030259832739830017, -0.1385791152715683, 0.07470573484897614, 0.010297968983650208, 0.10776551067829132, -0.1518344134092331, 0.11966060101985931, 0.06268240511417389, -0.019929304718971252, -0.15875475108623505, -0.007574290037155151, 0.08582718670368195, 0.11508773267269135, 0.10474427044391632, -0.1793913096189499, -0.17542321979999542, 0.01097436249256134, -0.11988639086484909, -0.023790687322616577, -0.17956095933914185, 0.1041908711194992, -0.16429010033607483, -0.04564964771270752], [0.10026662051677704, -0.18502593040466309, -0.13109160959720612, -0.027857020497322083, 0.11975358426570892, -0.12780341506004333, 0.11548231542110443, 0.016690805554389954, -0.04678523540496826, 0.08244989812374115, 0.18551011383533478, 0.06811805069446564, 0.09049923717975616, -0.13999523222446442, -0.16232548654079437, 0.007880941033363342, -0.12315405160188675, 0.1689349263906479, 0.0036070942878723145, 0.14010955393314362, -0.15582647919654846, 0.12228162586688995, -0.1836966574192047, -0.1667693555355072, 0.04683181643486023, -0.11048135161399841, 0.12575502693653107, -0.17175160348415375], [-0.1447620391845703, -0.02830466628074646, -0.06414186209440231, 0.17789246141910553, -0.16704237461090088, -0.09244490414857864, -0.08655725419521332, -0.026517599821090698, -0.04001323878765106, 0.1605270951986313, -0.18290768563747406, -0.03746137022972107, -0.09289053827524185, 0.10642378032207489, -0.03138554096221924, -0.17352545261383057, -0.08126408606767654, -0.11598344892263412, 0.18613459169864655, -0.1420099139213562, 0.014282464981079102, 0.15716762840747833, 0.025104135274887085, -0.10022980719804764, 0.030226603150367737, 0.027637973427772522, -0.09081895649433136, 0.16702823340892792], [0.10553531348705292, -0.0738070160150528, -0.10714475810527802, 0.16089917719364166, 0.13354165852069855, -0.060629770159721375, -0.0756775289773941, 0.057130828499794006, 0.15664778649806976, 0.14906372129917145, 0.1340949386358261, 0.019470050930976868, 0.12145204842090607, -0.07156385481357574, 0.1102314442396164, 0.11097709834575653, 0.14847882091999054, -0.004527151584625244, 0.1577950268983841, 0.009142696857452393, 0.008295983076095581, -0.020253702998161316, -0.008876517415046692, 0.08281625807285309, 0.10986514389514923, -0.013604804873466492, 0.17709921300411224, -0.08765193074941635], [0.07309727370738983, -0.17754945158958435, 0.06369517743587494, 0.11861883103847504, -0.16816070675849915, -0.08357223868370056, -0.008263498544692993, 0.010279878973960876, -0.05024956166744232, 0.038352906703948975, -0.16522075235843658, 0.042587801814079285, 0.0602697879076004, 0.10879994928836823, 0.1341135948896408, 0.17875371873378754, 0.12261833250522614, -0.129178985953331, -0.18573439121246338, -0.10448673367500305, 0.002742290496826172, -0.10317925363779068, -0.09296711534261703, -0.13280874490737915, -0.1088615134358406, 0.04938192665576935, 0.13529153168201447, -0.1018591970205307], [0.14223681390285492, -0.13931873440742493, 0.0683516412973404, 0.12866400182247162, 0.002414524555206299, 0.1175248771905899, -0.036574587225914, -0.11019440740346909, 0.14271901547908783, 0.08320783078670502, -0.16067513823509216, -0.11290360987186432, 0.1687181442975998, 0.010287538170814514, -0.18046875298023224, -0.023041069507598877, -0.0733548253774643, -0.09335304796695709, -0.060398831963539124, 0.12619011104106903, -0.0739266648888588, 0.16985909640789032, 0.1313774734735489, -0.022694319486618042, 0.12856920063495636, -0.0817381739616394, -0.12641064822673798, -0.06611575931310654], [0.1740216463804245, 0.025025665760040283, -0.037033140659332275, -0.0480944961309433, 0.18832264840602875, -0.13560068607330322, 0.09747032821178436, -0.0786726176738739, 0.08873455226421356, 0.18864677846431732, 0.17177926003932953, -0.0038024336099624634, -0.0789068192243576, 0.034580111503601074, -0.13313838839530945, 0.02232879400253296, -0.15776874125003815, -0.05065047740936279, 0.06527005136013031, -0.059016913175582886, -0.016891956329345703, 0.029331639409065247, -0.017789870500564575, 0.043327003717422485, 0.024075761437416077, -0.03293094038963318, 0.11650149524211884, 0.12812329828739166], [0.103833869099617, 0.02565741539001465, -0.07188837975263596, -0.02473379671573639, 0.122197225689888, 0.11894054710865021, -0.07566626369953156, -0.07030055671930313, -0.06898955255746841, 0.018834203481674194, -0.1682543158531189, -0.00022764503955841064, -0.020561769604682922, 0.05484697222709656, 0.11463262140750885, -0.14255008101463318, -0.015606030821800232, -0.08026686310768127, -0.15937159955501556, -0.1631408929824829, -0.030026808381080627, -0.14398053288459778, -0.17803460359573364, -0.1336016058921814, 0.11147494614124298, -0.0772186741232872, -0.10735920071601868, -0.012277215719223022], [-0.08485671877861023, -0.16159389913082123, -0.06608367711305618, 0.04216563701629639, -0.13451504707336426, -0.010339468717575073, -0.0825715884566307, -0.12231134623289108, 0.036308854818344116, -0.10241743177175522, 0.032916709780693054, 0.00231914222240448, 0.07450570166110992, 0.08022619783878326, 0.15925459563732147, -0.05986534059047699, 0.1191132515668869, -0.154502734541893, -0.009692132472991943, -0.0506523996591568, -0.07960198074579239, 0.11758758127689362, -0.16345882415771484, -0.10010243207216263, 0.03552448749542236, 0.1543685346841812, -0.09816332161426544, 0.10941265523433685], [0.054369956254959106, -0.05972537398338318, 0.07601051032543182, -0.04550731182098389, -0.1732414811849594, -0.0842347964644432, -0.135590061545372, 0.08136610686779022, 0.070845827460289, 0.15908430516719818, 0.09024055302143097, -0.09050063043832779, 0.11784128844738007, -0.12103527039289474, -0.10778944939374924, 0.13714785873889923, -0.16664627194404602, 0.13834141194820404, 0.1798541396856308, -0.02452610433101654, 0.01720784604549408, -0.0013058334589004517, -0.1806166172027588, 0.03793516755104065, -0.0036144405603408813, 0.18782193958759308, -0.08005723357200623, 0.10406343638896942], [-0.12287437915802002, -0.013088434934616089, 0.04245743155479431, -0.010990768671035767, 0.1192665845155716, 0.06616576015949249, -0.1550307273864746, 0.1435725837945938, 0.12108038365840912, 0.12909667193889618, 0.15002121031284332, -0.08473370969295502, -0.17754600942134857, -0.15477341413497925, 0.14716403186321259, 0.1391655057668686, 0.12248580157756805, -0.06872858852148056, -0.06270499527454376, -0.16214784979820251, 0.16462276875972748, 0.13485194742679596, 0.06527237594127655, -0.03807917237281799, 0.12476740777492523, 0.04942414164543152, -0.11026809364557266, -0.16119910776615143], [-0.18101200461387634, 0.18394626677036285, 0.032113730907440186, -0.12467550486326218, 0.07145033776760101, 0.18532897531986237, -0.12612703442573547, -0.11110367625951767, 0.0997447818517685, 0.057078540325164795, -0.17028029263019562, 0.012729182839393616, 0.02661667764186859, 0.1666908711194992, 0.18122105300426483, 0.06026199460029602, 0.18843714892864227, -0.14035724103450775, -0.16196011006832123, -0.13197937607765198, -0.14033883810043335, 0.01808038353919983, -0.13760045170783997, 0.12831510603427887, -0.030737951397895813, -0.03882330656051636, 0.07996843755245209, -0.06295427680015564], [0.06874103844165802, 0.13156072795391083, -0.010587334632873535, 0.0892452746629715, -0.04718931019306183, -0.16811589896678925, 0.1083693653345108, 0.01368027925491333, 0.00017198920249938965, -0.08994271606206894, 0.06615819036960602, 0.005648210644721985, -0.11620217561721802, -0.018665626645088196, 0.0740610808134079, 0.05893266201019287, 0.09254010021686554, 0.0881737619638443, 0.17469583451747894, 0.12031741440296173, 0.00517156720161438, -0.004591017961502075, -0.16005031764507294, 0.0662594586610794, -0.14972622692584991, -0.14567014575004578, -0.1434445083141327, -0.060584038496017456], [-0.12522435188293457, -0.11395769566297531, -0.13126833736896515, 0.16079066693782806, -0.06106680631637573, -0.03986290097236633, -0.02876584231853485, 0.0009617656469345093, -0.04761815071105957, -0.08019887655973434, -0.12146265804767609, -0.10629536211490631, 0.14811833202838898, -0.08516945689916611, -0.061292216181755066, 0.12289650738239288, 0.1600589007139206, -0.06233379244804382, -0.14702865481376648, 0.03442314267158508, 0.13355110585689545, 0.05181422829627991, -0.05368208885192871, -0.03180749714374542, -0.035769060254096985, 0.12695328891277313, 0.17889542877674103, 0.032352983951568604], [0.14690937101840973, -0.12156446278095245, -0.014260485768318176, 0.17011700570583344, -0.05291996896266937, -0.13227441906929016, -0.16492900252342224, 0.015050798654556274, -0.06170988082885742, -0.15277042984962463, 0.16647566854953766, -0.05553653836250305, -0.07814004272222519, 0.10753105580806732, 0.17288561165332794, -0.16672995686531067, 0.032230377197265625, -0.002712160348892212, 0.09363345801830292, 0.18789122998714447, 0.17508475482463837, 0.08936388790607452, 0.007908672094345093, -0.05414247512817383, -0.07550304383039474, 0.029492422938346863, 0.18058587610721588, 0.015048056840896606], [0.06787307560443878, -0.08995866775512695, -0.004023507237434387, 0.14940454065799713, 0.06740914285182953, 0.0430605411529541, -0.13586048781871796, -0.09589839726686478, 0.08335389196872711, 0.1654389351606369, 0.09004063904285431, -0.04917040467262268, 0.024920478463172913, -0.09130118042230606, 0.08953608572483063, 0.11974118649959564, -0.13759036362171173, -0.14364373683929443, -0.12895025312900543, -0.07626013457775116, 0.013488277792930603, -0.12466991692781448, 0.18020431697368622, 0.03966590762138367, -0.0620802640914917, 0.10718737542629242, 0.020619168877601624, -0.1883927583694458], [-0.07600315660238266, 0.14314235746860504, -0.08657261729240417, -0.09678146988153458, 0.0012644976377487183, 0.10421134531497955, 0.06210421025753021, 0.1837078183889389, 0.0055755674839019775, -0.14405065774917603, 0.013317301869392395, -0.14847660064697266, 0.13062070310115814, 0.15094871819019318, 0.03749006986618042, 0.14932678639888763, 0.02712656557559967, -0.16420024633407593, -0.0376623272895813, 0.04933498799800873, -0.078737273812294, 0.05284193158149719, -0.15657462179660797, -0.04450589418411255, 0.12234742939472198, 0.051945507526397705, 0.009657710790634155, -0.1310761719942093], [0.13147525489330292, -0.07674594223499298, -0.1696600615978241, -0.03872230648994446, -0.09658364951610565, -0.176173597574234, -0.09151481837034225, 0.1260538548231125, 0.04061007499694824, -0.14649531245231628, 0.12897641956806183, -0.07657722383737564, -0.11438480764627457, -0.02134670317173004, 0.1402173787355423, 0.12843729555606842, 0.09599064290523529, -0.0337902307510376, -0.16270264983177185, -0.1839759647846222, -0.14293645322322845, -0.0920717641711235, 0.09334506094455719, 0.17670632898807526, 0.0812654048204422, -0.1782497763633728, 0.1794043332338333, 0.007130026817321777], [-0.1672537624835968, -0.10306517034769058, 0.0592430979013443, -0.08936722576618195, 0.00893932580947876, 0.012865498661994934, 0.16028054058551788, 0.02879089117050171, -0.06212282180786133, -0.0912206843495369, -0.1470526158809662, 0.15846146643161774, -0.10918162018060684, 0.17534248530864716, -0.020674094557762146, 0.1831783801317215, -0.06121461093425751, -0.06291575729846954, -0.08771886676549911, 0.10817767679691315, 0.007303476333618164, 0.050633519887924194, -0.1827373206615448, 0.12406851351261139, 0.12950314581394196, -0.10709813982248306, 0.11206094920635223, -0.0037368834018707275], [0.008547961711883545, -0.14907509088516235, -0.18406358361244202, 0.08086259663105011, -0.0738271102309227, 0.09756936132907867, -0.18532416224479675, -0.08913745731115341, 0.08032448589801788, 0.13799579441547394, -0.16326169669628143, 0.003965437412261963, 0.17319132387638092, 0.17602817714214325, -0.12818200886249542, 0.02797245979309082, 0.04081292450428009, 0.17103268206119537, -0.08996839821338654, 0.023479074239730835, 0.07077838480472565, 0.17113693058490753, 0.15556611120700836, 0.08161424100399017, 0.03455691039562225, 0.13210926949977875, 0.058434486389160156, 0.02920517325401306], [-0.03966344892978668, -0.015929341316223145, -0.0767446979880333, 0.16808541119098663, -0.03847077488899231, -0.12315607815980911, -0.03574591875076294, 0.0003444403409957886, 0.013329833745956421, -0.0481257438659668, 0.001939818263053894, -0.05035826563835144, 0.15497277677059174, -0.1595756858587265, 0.025086969137191772, 0.050699591636657715, 0.03897331655025482, 0.16222943365573883, 0.05708463490009308, 0.11469991505146027, 0.16887052357196808, 0.023523345589637756, 0.10183526575565338, 0.015588939189910889, -0.18882203102111816, -0.04737482964992523, -0.15556269884109497, 0.04815281927585602], [-0.12801365554332733, 0.008140966296195984, -0.11324094980955124, -0.07919657975435257, -0.12257067114114761, -0.14976359903812408, -0.013435080647468567, -0.1799481213092804, -0.11265971511602402, 0.08261997997760773, 0.18677346408367157, -0.0436326265335083, -0.023207038640975952, -0.1644185483455658, -0.1751326471567154, 0.04977381229400635, 0.10888545215129852, 0.12862752377986908, -0.14588499069213867, 0.1388261467218399, 0.047485873103141785, -0.06003360450267792, -0.18846318125724792, 0.18441231548786163, -0.07115541398525238, -0.06339950859546661, 0.16141854226589203, 0.10780586302280426], [-0.09610550105571747, 0.13980527222156525, 0.1830516904592514, 0.07494346797466278, -0.061372920870780945, -0.05348174273967743, 0.14146138727664948, 0.12998299300670624, 0.0498165488243103, -0.07580983638763428, -0.06688891351222992, -0.17929227650165558, -0.06203576922416687, 0.03761066496372223, 0.08221034705638885, -0.03622381389141083, -0.06511376053094864, -0.06042070686817169, -0.048910677433013916, 0.09323517978191376, 0.08610816299915314, -0.13168004155158997, -0.0537651926279068, -0.14113332331180573, 0.14705826342105865, 0.18259738385677338, 0.14579160511493683, 0.12546025216579437]], "linear.bias": [0.01618984341621399, -0.004156365990638733, 0.005393311381340027, -0.007592067122459412, 0.08112846314907074, 0.02889762818813324, 0.17736084759235382, -0.05416685342788696, -0.0781751200556755, 0.004844069480895996, -0.04110829532146454, -0.16332371532917023, 0.15504808723926544, -0.1734236180782318, -0.058481454849243164, -0.16669437289237976, 0.15091873705387115, -0.020010292530059814, -0.1841130554676056, -0.0674205869436264, 0.045211195945739746, -0.13696962594985962, -0.02589605748653412, 0.12108178436756134, -0.07209224253892899, -0.14923986792564392, 0.10601277649402618, -0.06136108934879303]}