{"linear.weight": [[0.02687784656882286, -0.030921265482902527, 0.004407353699207306, 0.00981464609503746, -0.015401661396026611, -0.006541864946484566, 0.017130978405475616, -0.030662449076771736, 0.028320137411355972, -0.021940991282463074, 0.0014121346175670624, 0.02366061508655548, -0.009920699521899223, -0.00810609944164753, -0.018838444724678993, 0.02148165926337242, 0.012564335018396378, 0.025559738278388977, -0.011551789939403534, -0.0045060086995363235, 0.003120843321084976, -0.0008325539529323578, 0.021117329597473145, 0.005278877913951874, -0.025787997990846634, 0.002591323107481003, 0.034561339765787125, 0.012051824480295181, -0.0024442896246910095, -0.030667906627058983, 0.013332128524780273, -0.014171868562698364, -0.019569598138332367, -0.016674306243658066, 0.026645954698324203, -0.03134215995669365, -0.03381217271089554, -0.0230153389275074, -0.009337788447737694, 0.015068072825670242, -0.0171553622931242, 0.008652403950691223, -0.005832940340042114, -0.016629168763756752, 0.005767457187175751, 0.019073251634836197, 0.0041801296174526215, 0.006943132728338242, -0.02753525599837303, -0.026332030072808266, -0.024273063987493515, 0.00813838467001915, 0.024416733533143997, -0.02153434231877327, -0.02466166950762272, -0.01589103788137436, 0.005004137754440308, -0.024479717016220093, -0.02300863340497017, 0.025230538100004196, 0.0336553193628788, 0.010078512132167816, 0.035065826028585434, -0.0037309005856513977, 0.008640438318252563, 0.00618257001042366, -0.015507865697145462, -0.016862619668245316, -0.005329417064785957, -0.021759048104286194, 0.015980299562215805, 0.02927422896027565, -0.026055335998535156, 0.03424227610230446, -0.02390613779425621, 0.028184350579977036, -0.02515733242034912, 0.0028532035648822784, 0.03264874592423439, -0.015980713069438934, -0.01831454038619995, -0.02097415179014206, -0.02582806907594204, 0.022238347679376602, 0.016101166605949402, -0.0182056725025177, -0.030417975038290024, -0.010504195466637611, -0.008291959762573242, -0.007173959165811539, -0.011604918166995049, 0.022923413664102554, 0.0006081387400627136, -0.010079814121127129, -0.00432775542140007, -0.012589864432811737, -0.005605541169643402, -0.02800484374165535, -0.02491912804543972, 0.02976265922188759, 0.02058691903948784, 0.030527036637067795, -0.006312413141131401, -0.03250847011804581, -0.006305240094661713, 0.027084123343229294, 0.005846884101629257, 0.017420880496501923, 0.03011642023921013, -0.035644467920064926, -0.008419934660196304, 0.03248009458184242, -0.012952350080013275, 0.027095530182123184, -0.010734077543020248, -0.02031795121729374, -0.017331529408693314, 0.031055960804224014, -0.02403690293431282, -0.01570933684706688, -0.006832437589764595, 0.011749383062124252, 0.03147140517830849, 0.031163815408945084, 0.03322640433907509, -0.0029338113963603973, 0.00831085816025734, 0.01724841445684433, -0.0014776475727558136, 0.004328470677137375, -0.005454540252685547, -0.0006186403334140778, 0.015579089522361755, 0.03089531883597374, -0.013901213183999062, 0.0002161860466003418, 0.031313057988882065, 0.010960377752780914, 0.008671734482049942, 0.02865741029381752, -0.021583188325166702, 0.021650876849889755, -0.0006277598440647125, -0.017315244302153587, -0.02354060858488083, -0.011361433193087578, -0.03427797555923462, 0.010504968464374542, -0.03397657349705696, -0.003055918961763382, 0.00010081008076667786, 0.026346106082201004, -0.012476818636059761, -0.019106745719909668, 0.016857177019119263, -0.018421079963445663, -0.0036999620497226715, 0.02832401916384697, -0.019822513684630394, -0.021529220044612885, 0.02454262226819992, -0.0250738225877285, -0.014854086562991142, 0.030777793377637863, -0.018462250009179115, 0.015301551669836044, -0.013240886852145195, -0.008788960054516792, 0.025925856083631516, 0.007870294153690338, 0.02278067171573639, -0.002236783504486084, 0.024302344769239426, 0.027324017137289047, -0.008546974509954453, -0.02930353581905365, 0.0016989782452583313, -0.0010751225054264069, -0.03224262222647667, -0.021064236760139465, -0.017185015603899956, 0.01451890543103218, -0.007418297231197357, 0.024033885449171066, 0.007995281368494034, -0.03196900710463524, -0.015586841851472855, -0.016837840899825096, -0.00022124126553535461, -0.010822312906384468, 0.027855221182107925, 0.03247920051217079, -0.0010982118546962738, 0.011868782341480255, -0.014580845832824707, 0.011396057903766632, 0.02028346061706543, -0.012340294197201729, -0.0016271509230136871, -0.0054243505001068115, 0.01705913245677948, 0.020492907613515854, 0.019383739680051804, -0.0159757062792778, 0.03364790603518486, -0.009780926629900932, 0.019311655312776566, 0.0029840394854545593, -0.03404964134097099, 0.024494662880897522, 0.03104633465409279, -0.022732514888048172, 0.03563326224684715, 0.021760862320661545, 0.015860650688409805, -0.02316136099398136, 0.009103592485189438, -0.028533848002552986, 0.01913159340620041, -0.031076356768608093, 0.035711076110601425, 0.0060843825340271, -0.0008496679365634918, 0.0078057944774627686, 0.003981444984674454, -0.018957849591970444, -0.027252882719039917, -0.0005580708384513855, 0.014983411878347397, 0.004048723727464676, -0.0006776042282581329, 0.018885701894760132, 0.022932540625333786, 0.0006432868540287018, -0.0022669732570648193, -0.019227398559451103, -0.015500899404287338, 0.027044210582971573, 0.007160622626543045, -0.009931769222021103, 0.031125489622354507, 0.01376238465309143, -0.012835213914513588, 0.0207219161093235, 0.017526619136333466, 0.005612872540950775, 0.020676668733358383, -0.025656133890151978, 0.030530374497175217, -0.024913137778639793, -0.010037941858172417, -0.02099156379699707, 0.0010253526270389557, 0.030625227838754654, -0.015131810680031776, 0.012001264840364456, 0.02085878700017929, 0.0301981158554554, -0.01256706565618515, 0.014400038868188858, 0.013649094849824905, -0.009371966123580933, 0.006566096097230911, -0.012023977935314178, -0.016532201319932938, 0.003146994858980179, -0.02209063619375229, 0.02532248944044113, -0.01589561067521572, 0.032390888780355453, 0.009678978472948074, -0.022499728947877884, 0.005137510597705841, -0.0024364404380321503, 0.008303135633468628, -0.02134447917342186, -0.016854990273714066, -0.019238978624343872, 0.013958636671304703, 0.008985091000795364, -0.01379292830824852, 0.00369064137339592, 0.03481004014611244, 0.01507013663649559, 0.016335077583789825, -0.011618001386523247, -0.014437578618526459, 0.01041417196393013, 0.017443809658288956, -0.02549109421670437, 0.019756894558668137, 0.003924570977687836, 0.0292852483689785, -0.021817881613969803, 0.026981931179761887, -0.010072415694594383, 0.019114278256893158, -0.029907777905464172, -0.02995280921459198, -0.020557928830385208, -0.005304660648107529, -0.004678176715970039, -0.008014960214495659, 0.019055310636758804, 0.02950332686305046, -0.014275431632995605, -0.03413776308298111, 0.018296409398317337, 0.03339339420199394, -0.00031757354736328125, -0.002729564905166626, -0.010852061212062836, 0.01315309852361679, -0.020015576854348183, 0.010827217251062393, -0.03526124358177185, -0.023627400398254395, -0.032155465334653854, -0.03213321045041084, 0.03347054496407509, 0.018524855375289917, -0.01449255459010601, 0.004199016839265823, -0.03153279051184654, -0.020689910277724266, -0.0009465292096138, 0.010601188987493515, 0.021081719547510147, -0.019587760791182518, 0.019142530858516693, -0.0026807449758052826, 0.02776019647717476, 0.024527985602617264, 0.018319938331842422, 0.0015487782657146454, 0.012967094779014587, 0.031149055808782578, -0.029828282073140144, 0.03494301810860634, 0.03551622852683067, -0.028747739270329475, -0.0004773251712322235, -0.022152945399284363, 0.0341217927634716, -0.021646816283464432, 0.010151982307434082, 0.035286176949739456, 0.012887537479400635, 0.0018549151718616486, 0.0019466876983642578, 0.025918547064065933, 0.03376555070281029, -0.025339026004076004, 0.01814543828368187, -0.02371518313884735, -0.025408485904335976, -0.0213497132062912, -0.03249960020184517, -0.01781677082180977, 0.02106085792183876, -0.005227033048868179, -0.026881635189056396, 0.03496498242020607, -0.0250433050096035, -0.028313059359788895, 0.013228312134742737, 0.013184700161218643, -0.02301318384706974, -0.03430032357573509, -0.029539871960878372, 0.03546586260199547, -0.0064004696905612946, 0.01985129714012146, -0.03275661915540695, 0.029372919350862503, -0.0046388134360313416, 0.0052706897258758545, 0.020098883658647537, 0.03397377207875252, -7.624551653862e-05, 0.03077729418873787, 0.011897876858711243, -0.011763317510485649, 0.004338297992944717, -0.0019055381417274475, 0.02677953615784645, -0.01038782112300396, 0.03396007791161537, 0.021789703518152237, 0.024493034929037094, 0.027110595256090164, 0.007750317454338074, 0.012454681098461151, -0.030728779733181, -0.003939889371395111, 0.012681663036346436, -0.01243908517062664, -0.009978184476494789, -0.015265768393874168, 0.026271820068359375, 0.03379945084452629, -0.015633810311555862, -0.009373895823955536, 0.00648866593837738, 0.011112086474895477, 0.03492175415158272, 0.011598676443099976, 0.029281187802553177, 0.032352086156606674, 0.01642148196697235, -0.027579236775636673, 0.03438932076096535, 0.006420407444238663, 0.026391539722681046, -0.005970802158117294, -0.02509096823632717, -0.017714058980345726, 0.02942720428109169, -0.010590920224785805, 0.0003192424774169922, -0.03346802666783333, -0.003847401589155197, 0.009310126304626465, -0.0014227405190467834, 0.027242999523878098, -0.028790529817342758, -0.028799688443541527, 0.017172086983919144, -0.015282150357961655, -0.03385397046804428, 0.01302839070558548, -0.017908386886119843, 0.029056210070848465, 0.018123511224985123, 0.0010467655956745148, -0.004613671451807022, 0.030915144830942154, 0.027582284063100815, -0.021513551473617554, -0.021466754376888275, -0.0069616734981536865, 0.024711981415748596, 0.004590105265378952, -0.009168842807412148, -0.03155423328280449, -0.02359745465219021, 0.013883009552955627, 0.03507528826594353, 0.03166841343045235, -0.019460439682006836, -0.0034498609602451324, -0.015427760779857635, 0.01640428602695465, -0.013072721660137177, 0.0013687312602996826, 0.02866639569401741, 0.02559342235326767, -0.003002110868692398, -0.004367668181657791, 0.03171921893954277, 0.0061838217079639435, -0.012655109167098999, 0.02660289779305458, 0.009821262210607529, 0.008363302797079086, 0.024547509849071503, 0.0032262802124023438, -0.014688210561871529, -0.0004617534577846527, -0.03042881190776825, 0.009271997958421707, 0.02677852287888527, 0.010524418205022812, -0.001306135207414627, -0.0224904865026474, 0.0315154530107975, -0.02139553427696228, -0.002323310822248459, -0.030978748574852943, -0.0356302447617054, 0.03561229631304741, -0.020767992362380028, 0.0014205984771251678, 0.029537994414567947, -0.026673398911952972, 0.006379753351211548, -0.015037860721349716, -0.014779822900891304, -0.005344953387975693, 0.025518443435430527, 0.01193680614233017, 0.010248478502035141, -0.029652485623955727, 0.0005822405219078064, -0.035565536469221115, -0.006839871406555176, 0.014761503785848618, -0.03266057372093201, 0.02386016771197319, -0.011061541736125946, 0.003763146698474884, -0.0231179092079401, 0.018628966063261032, -0.02991742454469204, -0.007295280694961548, 0.019717976450920105, -0.004116509109735489, 0.020649299025535583, -0.01634652353823185, -0.02162657119333744, 0.017750535160303116, -0.03509509563446045, -0.02303420752286911, 0.033715661615133286, 0.016248945146799088, -0.012768920511007309, 0.013295978307723999, -0.0027900412678718567, -0.03557610139250755, -0.010915761813521385, 0.03311825171113014, 0.005046814680099487, -0.015647225081920624, -0.02977081760764122, 0.009916223585605621, 0.025412533432245255, 0.03137974813580513, -0.0006940066814422607, 0.006564844399690628, -0.0269584059715271, -0.028075382113456726, -0.024426929652690887, -0.0019318945705890656, -0.024955082684755325, 0.030818890780210495, -0.010752899572253227, 0.015466980636119843, 0.0021916255354881287, 0.022623252123594284, 0.012331422418355942, -0.02163688838481903, -0.03458313271403313, 0.01995134726166725, 0.0008224509656429291, -0.0027616918087005615, -0.029537474736571312, -0.006799016147851944, 0.0013996697962284088, 0.0041823722422122955, 0.005747076123952866, -0.009020768105983734, 0.010134778916835785, 0.01259436085820198, 0.006228737533092499, 0.019649233669042587, -0.029841693118214607, -0.001859225332736969, 0.030375156551599503, 0.018737122416496277, 0.029383588582277298, 0.012913763523101807, -0.01610662415623665, -0.027042705565690994, 0.004469513893127441, -0.017068974673748016, -0.019184280186891556, -0.031035706400871277, 0.008894596248865128, -0.028735434636473656, -0.013069609180092812, -0.00436193123459816, 0.014996983110904694, -0.03028785064816475, -0.01800752617418766, -0.0011816024780273438, -0.00816323608160019, -0.02816716395318508, -0.02672557532787323, -0.021903997287154198, -0.014008007943630219, -0.012925975024700165, 0.03371908888220787, 0.02112443372607231, -0.02772841416299343, -0.02492072433233261, 0.014803696423768997, -0.014415554702281952, 0.006628163158893585, -0.006479624658823013, -0.007703039795160294, -0.022539373487234116, -0.025688376277685165, -0.0326322577893734, 0.008894268423318863, -0.012495318427681923, 0.020647279918193817, -0.0021306760609149933, -0.01709548942744732, 0.024106476455926895, 0.023708391934633255, -0.01777227595448494, 0.028956059366464615, -0.004083998501300812, 0.013281919062137604, 0.025780946016311646, -0.024816840887069702, 0.013184208422899246, 0.032192494720220566, -0.013852672651410103, 0.0330902598798275, -0.0347590371966362, 0.004919093102216721, -0.03344234451651573, -0.022096451371908188, 0.03474537655711174, -0.028200184926390648, -0.03088376484811306, -0.0034542642533779144, -0.03531726449728012, 0.029583338648080826, 0.0248226560652256, 0.01590709388256073, -0.025794485583901405, 0.032252077013254166, 0.0014727786183357239, -0.017257822677493095, -0.0017482228577136993, -0.005841009318828583, 0.004985924810171127, -0.02649625763297081, 0.00611591711640358, -0.03173133730888367, 0.004425611346960068, 0.03354237601161003, 0.012658677995204926, 0.008057348430156708, 0.029797624796628952, 0.007619738578796387, -0.032524846494197845, -0.01978316903114319, -0.012361403554677963, -0.0043204836547374725, 0.03168550506234169, 0.008657589554786682, -0.018002957105636597, -0.012055065482854843, 0.02445828914642334, -0.03082915022969246, -0.008861253038048744, -0.014491438865661621, 0.03377080336213112, -0.02366665005683899, 0.03477301821112633, 0.013647206127643585, 0.030978646129369736, -0.02470611035823822, 0.0265083946287632, 0.008731089532375336, 0.005531337112188339, 0.008772525936365128, 0.0231645405292511, 0.01389208436012268, -0.02124243974685669, -0.022855602204799652, 0.029330816119909286, -0.0063597820699214935, -0.03011678159236908, -0.003961257636547089, -0.03475889191031456, -0.029718514531850815, -0.021227970719337463, -0.03209760785102844, -0.003320809453725815, 0.007298432290554047, 0.01999829337000847, -0.014580147340893745, -0.03125280141830444, 0.00617644190788269, 0.02661691978573799, 0.03418212756514549, -0.0006982721388339996, 0.029784169048070908, 0.0049363598227500916, 0.025798611342906952, -0.008026033639907837, -0.01735639199614525, 0.014064129441976547, -0.010493827983736992, -0.01987423747777939, 0.005780942738056183, -0.003657151013612747, -0.013250228017568588, 0.027530554682016373, -0.025942109525203705, 0.0355263389647007, 0.025326333940029144, 0.0004956349730491638, 0.010382510721683502, -0.025921940803527832, -0.02121940813958645, 0.004392020404338837, 0.013775113970041275, 0.0023122504353523254, -0.031213732436299324, -0.028065279126167297, 0.013406608253717422, 0.019886553287506104, -0.026828788220882416, 0.03361978009343147, 0.03098665550351143, -0.019718434661626816, 0.0031753554940223694, -0.018240541219711304, -0.0015382356941699982, -0.007037006318569183, -0.01895708404481411, -0.011202460154891014, 0.007037673145532608, -0.027525868266820908, -0.008163925260305405, 0.006894148886203766, -0.017235709354281425, -0.03186604380607605, -0.030919864773750305, -0.014657901600003242, -0.015523992478847504, 0.023506812751293182, 0.005151350051164627, -0.031801898032426834, -0.012890182435512543, 0.029932808130979538, -0.020865224301815033, -0.028890155255794525, -0.004070669412612915, -0.005087031051516533, -0.026038281619548798, -0.016906194388866425, -0.01403840072453022, 0.020447425544261932, -0.021104808896780014, -0.013582451269030571, -0.004342209547758102, -0.02657858096063137, -0.009104907512664795, -0.03375378996133804, 0.019582834094762802, 0.032851722091436386, -0.008474763482809067, -0.0046091340482234955, -0.01867724396288395, -0.03192680701613426, -0.01672600954771042, -0.01178457960486412, -0.01888365112245083, 0.005245957523584366, -0.0037452690303325653, -0.028623070567846298, -0.010970933362841606, 0.01670851930975914, -0.007308797910809517, -0.013681404292583466, 0.0035217292606830597, -0.02056456170976162, 0.03559079393744469, -0.021281873807311058, 0.022785324603319168, -0.00040774792432785034, 0.01465936005115509, 0.03289581462740898, -0.0316435843706131, 0.012904472649097443, -0.0161843653768301, 0.024817373603582382, 0.02599651739001274, 0.010968424379825592, 0.007689483463764191, -0.00431075319647789, -0.02353627420961857, 0.005788475275039673, -0.0313355028629303, -0.025566179305315018, -0.02022845484316349, -0.016496289521455765, 0.002442203462123871]], "linear.bias": [-0.031180165708065033]}